|--- app/
|    |--- (auth)/
|    |    |--- forgot-password/
|    |    |    +--- page.tsx (5.7 KB)
|    |    |--- login/
|    |    |    +--- page.tsx (12.2 KB)
|    |    |--- register/
|    |    |    +--- page.tsx (15.2 KB)
|    |    |--- update-password/
|    |    |    +--- page.tsx (6.9 KB)
|    |    +--- verify-email/
|    |         +--- page.tsx (5.2 KB)
|    |--- (dashboard)/
|    |    |--- admin/
|    |    |    |--- analytics/
|    |    |    |    +--- page.tsx (7.4 KB)
|    |    |    +--- personalization/
|    |    |         +--- page.tsx (7.0 KB)
|    |    |--- ai-search/
|    |    |    |--- page.tsx (0.6 KB)
|    |    |    +--- SearchClient.tsx (8.5 KB)
|    |    |--- discover/
|    |    |    |--- DiscoverClient.tsx (0.6 KB)
|    |    |    +--- page.tsx (1.5 KB)
|    |    |--- events/
|    |    |    |--- [id]/
|    |    |    |    |--- settings/
|    |    |    |    |    +--- page.tsx (2.3 KB)
|    |    |    |    |--- EventDashboardClient.tsx (11.5 KB)
|    |    |    |    |--- loading.tsx (1.2 KB)
|    |    |    |    +--- page.tsx (2.5 KB)
|    |    |    +--- page.tsx (6.7 KB)
|    |    |--- media/
|    |    |    +--- page.tsx (5.4 KB)
|    |    |--- my-photos/
|    |    |    |--- MyPhotosClient.tsx (7.2 KB)
|    |    |    +--- page.tsx (2.2 KB)
|    |    |--- onboarding/
|    |    |    +--- page.tsx (4.9 KB)
|    |    |--- profile/
|    |    |    |--- favourites/
|    |    |    |    +--- page.tsx (2.6 KB)
|    |    |    |--- insights/
|    |    |    |    +--- page.tsx (5.2 KB)
|    |    |    |--- settings/
|    |    |    |    +--- page.tsx (13.8 KB)
|    |    |    |--- tags/
|    |    |    |    +--- page.tsx (2.4 KB)
|    |    |    |--- page.tsx (1.4 KB)
|    |    |    +--- ProfileDashboardClient.tsx (21.5 KB)
|    |    |--- upload/
|    |    |    |--- page.tsx (1.5 KB)
|    |    |    +--- UploadDashboardClient.tsx (6.0 KB)
|    |    |--- error.tsx (1.8 KB)
|    |    +--- loading.tsx (0.5 KB)
|    |--- api/
|    |    |--- admin/
|    |    |    |--- analytics/
|    |    |    |    +--- route.ts (3.9 KB)
|    |    |    +--- personalization/
|    |    |         +--- route.ts (3.3 KB)
|    |    |--- ai/
|    |    |    |--- event-insights/
|    |    |    |    +--- route.ts (4.0 KB)
|    |    |    |--- process/
|    |    |    |    +--- route.ts (5.2 KB)
|    |    |    |--- recommend/
|    |    |    |    |--- track/
|    |    |    |    |    +--- route.ts (3.1 KB)
|    |    |    |    +--- route.ts (1.2 KB)
|    |    |    +--- search/
|    |    |         |--- similar/
|    |    |         |    +--- route.ts (1.6 KB)
|    |    |         +--- route.ts (7.0 KB)
|    |    |--- auth/
|    |    |    |--- callback/
|    |    |    |    +--- route.ts (1.2 KB)
|    |    |    +--- session/
|    |    |         +--- route.ts (1.4 KB)
|    |    |--- faces/
|    |    |    |--- process-media/
|    |    |    |    +--- route.ts (4.4 KB)
|    |    |    +--- scan-historical/
|    |    |         +--- route.ts (2.1 KB)
|    |    |--- media/
|    |    |    +--- [id]/
|    |    |         |--- download/
|    |    |         |    +--- route.ts (4.2 KB)
|    |    |         +--- track/
|    |    |              +--- route.ts (2.1 KB)
|    |    |--- notifications/
|    |    |    +--- route.ts (2.1 KB)
|    |    |--- search/
|    |    |    +--- similar/
|    |    |--- social/
|    |    |    |--- comment/
|    |    |    |    +--- route.ts (6.0 KB)
|    |    |    |--- favourite/
|    |    |    |    +--- route.ts (3.4 KB)
|    |    |    |--- like/
|    |    |    |    +--- route.ts (4.2 KB)
|    |    |    |--- photos-of-me/
|    |    |    |    +--- route.ts (2.2 KB)
|    |    |    |--- share/
|    |    |    |    +--- route.ts (2.6 KB)
|    |    |    +--- tag/
|    |    |         +--- route.ts (5.7 KB)
|    |    |--- upload/
|    |    |    +--- route.ts (1.7 KB)
|    |    +--- user/
|    |         +--- delete/
|    |              +--- route.ts (1.2 KB)
|    |--- error.tsx (1.7 KB)
|    |--- favicon.ico (1172.1 KB)
|    |--- global-error.tsx (2.4 KB)
|    |--- globals.css (1.7 KB)
|    |--- layout.tsx (1.8 KB)
|    |--- loading.tsx (0.4 KB)
|    |--- not-found.tsx (1.8 KB)
|    +--- page.tsx (24.1 KB)
|--- components/
|    |--- ai/
|    |    +--- AnalyticsDashboard.tsx (18.4 KB)
|    |--- discover/
|    |--- events/
|    |    |--- ActivityFeed.tsx (2.9 KB)
|    |    |--- CreateEventModal.tsx (19.4 KB)
|    |    |--- CreateEventTrigger.tsx (0.8 KB)
|    |    |--- EventCard.tsx (10.9 KB)
|    |    |--- EventGallery.tsx (14.7 KB)
|    |    |--- EventHero.tsx (7.8 KB)
|    |    |--- EventRecommendations.tsx (2.8 KB)
|    |    |--- EventSettingsClient.tsx (33.0 KB)
|    |    |--- PersonalizedDashboard.tsx (4.5 KB)
|    |    |--- PlatformStats.tsx (4.1 KB)
|    |    |--- RequestAccessButton.tsx (1.8 KB)
|    |    +--- TrendingEvents.tsx (2.6 KB)
|    |--- faces/
|    |    |--- FaceRecognitionHub.tsx (8.5 KB)
|    |    +--- SelfieCapture.tsx (6.0 KB)
|    |--- media/
|    |    |--- AdminDiagnosticsPanel.tsx (2.8 KB)
|    |    |--- MediaCard.tsx (4.2 KB)
|    |    |--- MediaCommentsDrawer.tsx (7.6 KB)
|    |    |--- MediaGallery.tsx (3.6 KB)
|    |    |--- MediaGalleryGrid.tsx (32.2 KB)
|    |    |--- MediaLightbox.tsx (7.5 KB)
|    |    |--- MediaShareModal.tsx (7.8 KB)
|    |    |--- MediaSidePanel.tsx (22.2 KB)
|    |    |--- MediaSocialBar.tsx (3.7 KB)
|    |    |--- PhotoTaggingOverlay.tsx (12.0 KB)
|    |    +--- RecommendationCard.tsx (5.0 KB)
|    |--- notifications/
|    |    |--- NotificationBell.tsx (4.6 KB)
|    |    |--- NotificationDropdown.tsx (8.2 KB)
|    |    |--- NotificationItem.tsx (4.5 KB)
|    |    +--- NotificationToast.tsx (3.3 KB)
|    |--- profile/
|    |    |--- AvatarUpload.tsx (3.1 KB)
|    |    |--- FutureHooks.tsx (2.8 KB)
|    |    +--- PrivacySettingsForm.tsx (5.5 KB)
|    |--- providers/
|    |    +--- GlobalDialogProvider.tsx (2.6 KB)
|    |--- shared/
|    |    +--- Navbar.tsx (9.9 KB)
|    |--- ui/
|    |    |--- Badge.tsx (1.0 KB)
|    |    |--- Button.tsx (2.4 KB)
|    |    |--- Card.tsx (1.2 KB)
|    |    |--- ConfirmDialog.tsx (1.6 KB)
|    |    |--- Dialog.tsx (2.6 KB)
|    |    |--- FeatureCard.tsx (1.1 KB)
|    |    |--- SectionHeader.tsx (0.9 KB)
|    |    +--- Tabs.tsx (1.6 KB)
|    +--- upload/
|         |--- UploadDropzone.tsx (6.6 KB)
|         |--- UploadPreview.tsx (0.4 KB)
|         |--- UploadProgress.tsx (0.4 KB)
|         +--- UploadQueue.tsx (0.4 KB)
|--- lib/
|    |--- actions/
|    |    |--- email.ts (1.4 KB)
|    |    |--- event_members.ts (6.8 KB)
|    |    |--- events.ts (13.6 KB)
|    |    |--- faces.ts (4.3 KB)
|    |    |--- media.ts (7.4 KB)
|    |    |--- profile.ts (5.5 KB)
|    |    +--- role_requests.ts (4.9 KB)
|    |--- ai/
|    |--- face-recognition/
|    |    +--- server.ts (2.1 KB)
|    |--- personalization/
|    |    |--- ai-insights.ts (2.3 KB)
|    |    +--- profile-updater.ts (7.0 KB)
|    |--- recommendation/
|    |    |--- cache.ts (1.7 KB)
|    |    |--- candidate-selection.ts (2.2 KB)
|    |    |--- config.ts (1.3 KB)
|    |    |--- constants.ts (0.8 KB)
|    |    |--- engine.ts (3.8 KB)
|    |    |--- reasoning.ts (2.6 KB)
|    |    |--- scoring.ts (6.9 KB)
|    |    +--- types.ts (1.1 KB)
|    |--- search/
|    |    +--- normalization.ts (2.2 KB)
|    |--- services/
|    |    +--- NotificationService.ts (3.6 KB)
|    |--- supabase/
|    |    |--- client.ts (0.2 KB)
|    |    +--- server.ts (0.8 KB)
|    |--- utils/
|    |    +--- download.ts (1.1 KB)
|    |--- cloudinary.ts (0.8 KB)
|    +--- logger.ts (1.5 KB)
|--- public/
|    |--- models/
|    |    |--- age_gender_model-weights_manifest.json (8.2 KB)
|    |    |--- age_gender_model.bin (419.6 KB)
|    |    |--- face_expression_model-weights_manifest.json (6.8 KB)
|    |    |--- face_expression_model.bin (321.7 KB)
|    |    |--- face_landmark_68_model-weights_manifest.json (8.3 KB)
|    |    |--- face_landmark_68_model.bin (348.5 KB)
|    |    |--- face_landmark_68_tiny_model-weights_manifest.json (4.7 KB)
|    |    |--- face_landmark_68_tiny_model.bin (75.4 KB)
|    |    |--- face_recognition_model-weights_manifest.json (19.2 KB)
|    |    |--- face_recognition_model.bin (6293.0 KB)
|    |    |--- ssd_mobilenetv1_model-weights_manifest.json (27.6 KB)
|    |    |--- ssd_mobilenetv1_model.bin (5485.3 KB)
|    |    |--- tiny_face_detector_model-weights_manifest.json (3.1 KB)
|    |    +--- tiny_face_detector_model.bin (188.8 KB)
|    |--- file.svg (0.4 KB)
|    |--- globe.svg (1.0 KB)
|    |--- next.svg (1.3 KB)
|    |--- vercel.svg (0.1 KB)
|    +--- window.svg (0.4 KB)
|--- supabase/
|    |--- pinned_events_migration.sql (1.8 KB)
|    +--- schema.sql (33.0 KB)
|--- types/
|    +--- database.types.ts (24.2 KB)
|--- .env.local (0.9 KB)
|--- .eslintignore (0.0 KB)
|--- .gitignore (0.5 KB)
|--- .prettierrc (0.1 KB)
|--- AGENTS.md (0.3 KB)
|--- CLAUDE.md (0.0 KB)
|--- clean_tree.txt (9.5 KB)
|--- eslint.config.mjs (0.5 KB)
|--- generate_tree.js (1.1 KB)
|--- middleware.ts (3.1 KB)
|--- next-env.d.ts (0.2 KB)
|--- next.config.ts (0.2 KB)
|--- package-lock.json (312.8 KB)
|--- package.json (1.3 KB)
|--- postcss.config.mjs (0.1 KB)
|--- README.md (1.4 KB)
|--- tsconfig.json (0.7 KB)
+--- tsconfig.tsbuildinfo (224.7 KB)
